<?xml version="1.0"?>
<opencv_storage>
<cascade>
  <stageType>BOOST</stageType>
  <featureType>HAAR</featureType>
  <height>24</height>
  <width>24</width>
  <stageParams>
    <boostType>GAB</boostType>
    <minHitRate>9.9000000953674316e-01</minHitRate>
    <maxFalseAlarm>9.9999997764825821e-03</maxFalseAlarm>
    <weightTrimRate>9.4999999999999996e-01</weightTrimRate>
    <maxDepth>1</maxDepth>
    <maxWeakCount>100</maxWeakCount></stageParams>
  <featureParams>
    <maxCatCount>0</maxCatCount>
    <featSize>1</featSize>
    <mode>BASIC</mode></featureParams>
  <stageNum>4</stageNum>
  <stages>
    <!-- stage 0 -->
    <_>
      <maxWeakCount>11</maxWeakCount>
      <stageThreshold>-5.3713756799697876e-01</stageThreshold>
      <weakClassifiers>
        <_>
          <internalNodes>
            0 -1 6 -4.7611065208911896e-02</internalNodes>
          <leafValues>
            -9.1728210449218750e-01 5.1598173379898071e-01</leafValues></_>
        <_>
          <internalNodes>
            0 -1 1 6.8624159321188927e-03</internalNodes>
          <leafValues>
            -8.6097294092178345e-01 2.4130854010581970e-01</leafValues></_>
        <_>
          <internalNodes>
            0 -1 45 -5.7896528393030167e-02</internalNodes>
          <leafValues>
            -8.5532695055007935e-01 3.4233742952346802e-01</leafValues></_>
        <_>
          <internalNodes>
            0 -1 8 4.8999212682247162e-02</internalNodes>
          <leafValues>
            -5.9536325931549072e-01 6.6143685579299927e-01</leafValues></_>
        <_>
          <internalNodes>
            0 -1 82 -1.9922230858355761e-03</internalNodes>
          <leafValues>
            5.0608003139495850e-01 -5.2464979887008667e-01</leafValues></_>
        <_>
          <internalNodes>
            0 -1 2 2.1289875730872154e-03</internalNodes>
          <leafValues>
            -5.1013010740280151e-01 4.9954843521118164e-01</leafValues></_>
        <_>
          <internalNodes>
            0 -1 29 -2.0482504367828369e-01</internalNodes>
          <leafValues>
            -3.5970336198806763e-01 8.2430732250213623e-01</leafValues></_>
        <_>
          <internalNodes>
            0 -1 69 1.3746145181357861e-02</internalNodes>
          <leafValues>
            -5.4180961847305298e-01 5.6316161155700684e-01</leafValues></_>
        <_>
          <internalNodes>
            0 -1 49 -4.6552393585443497e-02</internalNodes>
          <leafValues>
            4.0856748819351196e-01 -7.0539498329162598e-01</leafValues></_>
        <_>
          <internalNodes>
            0 -1 76 -5.0963396206498146e-03</internalNodes>
          <leafValues>
            5.2541673183441162e-01 -5.6918078660964966e-01</leafValues></_>
        <_>
          <internalNodes>
            0 -1 21 8.9238147484138608e-04</internalNodes>
          <leafValues>
            -6.5661150217056274e-01 4.0272721648216248e-01</leafValues></_></weakClassifiers></_>
    <!-- stage 1 -->
    <_>
      <maxWeakCount>19</maxWeakCount>
      <stageThreshold>-4.9316975474357605e-01</stageThreshold>
      <weakClassifiers>
        <_>
          <internalNodes>
            0 -1 20 -2.0652865059673786e-03</internalNodes>
          <leafValues>
            -8.6033517122268677e-01 9.6078431606292725e-01</leafValues></_>
        <_>
          <internalNodes>
            0 -1 28 -1.1033216491341591e-02</internalNodes>
          <leafValues>
            1.9008024036884308e-01 -8.4475964307785034e-01</leafValues></_>
        <_>
          <internalNodes>
            0 -1 17 -2.6062536239624023e-01</internalNodes>
          <leafValues>
            4.6336039900779724e-01 -4.8534089326858521e-01</leafValues></_>
        <_>
          <internalNodes>
            0 -1 61 -1.4351806603372097e-02</internalNodes>
          <leafValues>
            5.7097476720809937e-01 -4.1273298859596252e-01</leafValues></_>
        <_>
          <internalNodes>
            0 -1 34 -3.2693728804588318e-02</internalNodes>
          <leafValues>
            -8.4656906127929688e-01 2.5951561331748962e-01</leafValues></_>
        <_>
          <internalNodes>
            0 -1 7 1.4268348459154367e-03</internalNodes>
          <leafValues>
            -5.1095724105834961e-01 4.0848174691200256e-01</leafValues></_>
        <_>
          <internalNodes>
            0 -1 5 -2.8045449871569872e-03</internalNodes>
          <leafValues>
            2.5571727752685547e-01 -7.3740941286087036e-01</leafValues></_>
        <_>
          <internalNodes>
            0 -1 31 1.5757875517010689e-02</internalNodes>
          <leafValues>
            1.8450123071670532e-01 -8.6044341325759888e-01</leafValues></_>
        <_>
          <internalNodes>
            0 -1 47 -9.8293330520391464e-03</internalNodes>
          <leafValues>
            -9.2453521490097046e-01 1.7236207425594330e-01</leafValues></_>
        <_>
          <internalNodes>
            0 -1 22 -2.3213461972773075e-03</internalNodes>
          <leafValues>
            3.2243016362190247e-01 -5.2780532836914063e-01</leafValues></_>
        <_>
          <internalNodes>
            0 -1 81 3.2628485932946205e-03</internalNodes>
          <leafValues>
            -4.8271721601486206e-01 3.5437059402465820e-01</leafValues></_>
        <_>
          <internalNodes>
            0 -1 0 -2.7753766626119614e-02</internalNodes>
          <leafValues>
            -4.9155870079994202e-01 3.5076099634170532e-01</leafValues></_>
        <_>
          <internalNodes>
            0 -1 51 3.9868247695267200e-03</internalNodes>
          <leafValues>
            -3.6830487847328186e-01 4.4702962040901184e-01</leafValues></_>
        <_>
          <internalNodes>
            0 -1 78 -6.7835079971700907e-04</internalNodes>
          <leafValues>
            3.2114475965499878e-01 -5.4920095205307007e-01</leafValues></_>
        <_>
          <internalNodes>
            0 -1 53 2.1667475812137127e-03</internalNodes>
          <leafValues>
            1.7701709270477295e-01 -8.5954254865646362e-01</leafValues></_>
        <_>
          <internalNodes>
            0 -1 64 -1.0382999898865819e-03</internalNodes>
          <leafValues>
            -8.1824499368667603e-01 1.5369260311126709e-01</leafValues></_>
        <_>
          <internalNodes>
            0 -1 36 -2.7034869417548180e-03</internalNodes>
          <leafValues>
            -2.0071314275264740e-01 9.4504839181900024e-01</leafValues></_>
        <_>
          <internalNodes>
            0 -1 27 -8.3962753415107727e-03</internalNodes>
          <leafValues>
            4.3277341127395630e-01 -4.2137637734413147e-01</leafValues></_>
        <_>
          <internalNodes>
            0 -1 50 7.0016121026128531e-04</internalNodes>
          <leafValues>
            1.9541049003601074e-01 -9.1738468408584595e-01</leafValues></_></weakClassifiers></_>
    <!-- stage 2 -->
    <_>
      <maxWeakCount>24</maxWeakCount>
      <stageThreshold>-6.8026214838027954e-01</stageThreshold>
      <weakClassifiers>
        <_>
          <internalNodes>
            0 -1 24 -4.1954445838928223e-01</internalNodes>
          <leafValues>
            -1.2534819543361664e-01 -9.0163934230804443e-01</leafValues></_>
        <_>
          <internalNodes>
            0 -1 46 -8.2620857283473015e-03</internalNodes>
          <leafValues>
            5.5568903684616089e-01 -6.1379987001419067e-01</leafValues></_>
        <_>
          <internalNodes>
            0 -1 48 -1.1804071068763733e-01</internalNodes>
          <leafValues>
            3.1628194451332092e-01 -7.5229871273040771e-01</leafValues></_>
        <_>
          <internalNodes>
            0 -1 40 -2.8245395515114069e-03</internalNodes>
          <leafValues>
            5.9829771518707275e-01 -3.3662551641464233e-01</leafValues></_>
        <_>
          <internalNodes>
            0 -1 74 2.5612385943531990e-02</internalNodes>
          <leafValues>
            -3.0920124053955078e-01 6.0398638248443604e-01</leafValues></_>
        <_>
          <internalNodes>
            0 -1 54 -3.9015792310237885e-02</internalNodes>
          <leafValues>
            2.3555666208267212e-01 -7.7173161506652832e-01</leafValues></_>
        <_>
          <internalNodes>
            0 -1 32 1.8831398338079453e-02</internalNodes>
          <leafValues>
            2.6346272230148315e-01 -7.0719271898269653e-01</leafValues></_>
        <_>
          <internalNodes>
            0 -1 42 -1.2601332738995552e-02</internalNodes>
          <leafValues>
            -9.6509236097335815e-01 1.4259721338748932e-01</leafValues></_>
        <_>
          <internalNodes>
            0 -1 30 3.1476423144340515e-02</internalNodes>
          <leafValues>
            1.3054098188877106e-01 -8.4862589836120605e-01</leafValues></_>
        <_>
          <internalNodes>
            0 -1 37 -4.4955424964427948e-03</internalNodes>
          <leafValues>
            2.3732414841651917e-01 -5.7958942651748657e-01</leafValues></_>
        <_>
          <internalNodes>
            0 -1 77 -9.5361418789252639e-04</internalNodes>
          <leafValues>
            4.9460691213607788e-01 -2.8292533755302429e-01</leafValues></_>
        <_>
          <internalNodes>
            0 -1 68 -9.1077238321304321e-02</internalNodes>
          <leafValues>
            3.1987604498863220e-01 -4.8863625526428223e-01</leafValues></_>
        <_>
          <internalNodes>
            0 -1 52 6.3821859657764435e-03</internalNodes>
          <leafValues>
            -2.0293320715427399e-01 7.3880213499069214e-01</leafValues></_>
        <_>
          <internalNodes>
            0 -1 3 1.7108445754274726e-03</internalNodes>
          <leafValues>
            -3.7714901566505432e-01 3.9588332176208496e-01</leafValues></_>
        <_>
          <internalNodes>
            0 -1 59 -3.1375122489407659e-04</internalNodes>
          <leafValues>
            -1.6255079209804535e-01 9.3729978799819946e-01</leafValues></_>
        <_>
          <internalNodes>
            0 -1 56 -1.6717803664505482e-03</internalNodes>
          <leafValues>
            -6.0557729005813599e-01 2.8363326191902161e-01</leafValues></_>
        <_>
          <internalNodes>
            0 -1 70 1.0006801458075643e-03</internalNodes>
          <leafValues>
            -3.7074679136276245e-01 3.8685765862464905e-01</leafValues></_>
        <_>
          <internalNodes>
            0 -1 19 1.9343908643350005e-03</internalNodes>
          <leafValues>
            -2.6434779167175293e-01 5.3278625011444092e-01</leafValues></_>
        <_>
          <internalNodes>
            0 -1 43 -2.7273267041891813e-03</internalNodes>
          <leafValues>
            -8.6345344781875610e-01 1.7112681269645691e-01</leafValues></_>
        <_>
          <internalNodes>
            0 -1 58 -8.2738660275936127e-03</internalNodes>
          <leafValues>
            6.8438696861267090e-01 -2.3678426444530487e-01</leafValues></_>
        <_>
          <internalNodes>
            0 -1 72 -1.2096299324184656e-03</internalNodes>
          <leafValues>
            6.9449895620346069e-01 -1.9851218163967133e-01</leafValues></_>
        <_>
          <internalNodes>
            0 -1 83 2.4508428759872913e-04</internalNodes>
          <leafValues>
            -3.0168020725250244e-01 4.4286397099494934e-01</leafValues></_>
        <_>
          <internalNodes>
            0 -1 35 7.0892376825213432e-03</internalNodes>
          <leafValues>
            -2.0277164876461029e-01 6.4674693346023560e-01</leafValues></_>
        <_>
          <internalNodes>
            0 -1 14 1.5173378633335233e-03</internalNodes>
          <leafValues>
            -3.6714079976081848e-01 3.6636653542518616e-01</leafValues></_></weakClassifiers></_>
    <!-- stage 3 -->
    <_>
      <maxWeakCount>31</maxWeakCount>
      <stageThreshold>-6.6179126501083374e-01</stageThreshold>
      <weakClassifiers>
        <_>
          <internalNodes>
            0 -1 79 7.7999667264521122e-03</internalNodes>
          <leafValues>
            -8.1255686283111572e-01 6.9230771064758301e-01</leafValues></_>
        <_>
          <internalNodes>
            0 -1 55 6.5224024001508951e-04</internalNodes>
          <leafValues>
            3.8856558501720428e-02 -7.2563022375106812e-01</leafValues></_>
        <_>
          <internalNodes>
            0 -1 23 -2.2606369107961655e-02</internalNodes>
          <leafValues>
            -8.8669788837432861e-01 9.2094741761684418e-02</leafValues></_>
        <_>
          <internalNodes>
            0 -1 18 2.6052027940750122e-02</internalNodes>
          <leafValues>
            1.7483264207839966e-01 -6.8450200557708740e-01</leafValues></_>
        <_>
          <internalNodes>
            0 -1 10 -3.9541356265544891e-02</internalNodes>
          <leafValues>
            4.1639444231987000e-01 -3.1476968526840210e-01</leafValues></_>
        <_>
          <internalNodes>
            0 -1 38 -6.9110551849007607e-03</internalNodes>
          <leafValues>
            -9.0470051765441895e-01 1.5090407431125641e-01</leafValues></_>
        <_>
          <internalNodes>
            0 -1 39 1.2754751369357109e-03</internalNodes>
          <leafValues>
            1.9746164977550507e-01 -5.7597202062606812e-01</leafValues></_>
        <_>
          <internalNodes>
            0 -1 44 1.4535693917423487e-03</internalNodes>
          <leafValues>
            -4.2229372262954712e-01 2.6096791028976440e-01</leafValues></_>
        <_>
          <internalNodes>
            0 -1 71 7.3704933747649193e-03</internalNodes>
          <leafValues>
            -3.7972068786621094e-01 3.8380736112594604e-01</leafValues></_>
        <_>
          <internalNodes>
            0 -1 9 -3.4530432894825935e-03</internalNodes>
          <leafValues>
            4.5751506090164185e-01 -2.5587126612663269e-01</leafValues></_>
        <_>
          <internalNodes>
            0 -1 60 5.7035759091377258e-03</internalNodes>
          <leafValues>
            1.4374305307865143e-01 -8.9842575788497925e-01</leafValues></_>
        <_>
          <internalNodes>
            0 -1 12 -1.4333322178572416e-03</internalNodes>
          <leafValues>
            -2.1137025952339172e-01 6.3916409015655518e-01</leafValues></_>
        <_>
          <internalNodes>
            0 -1 63 2.6120734401047230e-03</internalNodes>
          <leafValues>
            1.7448259890079498e-01 -7.7326536178588867e-01</leafValues></_>
        <_>
          <internalNodes>
            0 -1 65 -1.4497668016701937e-03</internalNodes>
          <leafValues>
            -6.8078637123107910e-01 1.5803654491901398e-01</leafValues></_>
        <_>
          <internalNodes>
            0 -1 80 -2.0826160907745361e-03</internalNodes>
          <leafValues>
            5.5833202600479126e-01 -2.3044307529926300e-01</leafValues></_>
        <_>
          <internalNodes>
            0 -1 57 1.0790556669235229e-02</internalNodes>
          <leafValues>
            1.2561681866645813e-01 -9.5704901218414307e-01</leafValues></_>
        <_>
          <internalNodes>
            0 -1 62 4.4954000040888786e-03</internalNodes>
          <leafValues>
            -2.0393632352352142e-01 6.4146858453750610e-01</leafValues></_>
        <_>
          <internalNodes>
            0 -1 13 5.7710688561201096e-03</internalNodes>
          <leafValues>
            -3.4338086843490601e-01 3.6593386530876160e-01</leafValues></_>
        <_>
          <internalNodes>
            0 -1 11 -9.5052761025726795e-04</internalNodes>
          <leafValues>
            5.7604676485061646e-01 -1.8765258789062500e-01</leafValues></_>
        <_>
          <internalNodes>
            0 -1 15 -4.6046003699302673e-02</internalNodes>
          <leafValues>
            7.4007105827331543e-01 -1.4053872227668762e-01</leafValues></_>
        <_>
          <internalNodes>
            0 -1 16 6.5070423297584057e-03</internalNodes>
          <leafValues>
            -4.2270109057426453e-01 3.9029321074485779e-01</leafValues></_>
        <_>
          <internalNodes>
            0 -1 26 2.0475249737501144e-02</internalNodes>
          <leafValues>
            1.1788881570100784e-01 -9.0751534700393677e-01</leafValues></_>
        <_>
          <internalNodes>
            0 -1 33 -1.0338808409869671e-02</internalNodes>
          <leafValues>
            -9.8073661327362061e-01 8.3150498569011688e-02</leafValues></_>
        <_>
          <internalNodes>
            0 -1 25 -1.3191435486078262e-02</internalNodes>
          <leafValues>
            -9.5025533437728882e-01 6.8670086562633514e-02</leafValues></_>
        <_>
          <internalNodes>
            0 -1 73 9.0522766113281250e-03</internalNodes>
          <leafValues>
            -2.3330561816692352e-01 4.4146585464477539e-01</leafValues></_>
        <_>
          <internalNodes>
            0 -1 84 -4.1598061216063797e-04</internalNodes>
          <leafValues>
            2.9114753007888794e-01 -3.4541422128677368e-01</leafValues></_>
        <_>
          <internalNodes>
            0 -1 66 2.2311951033771038e-03</internalNodes>
          <leafValues>
            1.4066638052463531e-01 -6.6127669811248779e-01</leafValues></_>
        <_>
          <internalNodes>
            0 -1 67 -4.5867227017879486e-03</internalNodes>
          <leafValues>
            -7.8915888071060181e-01 1.0707153379917145e-01</leafValues></_>
        <_>
          <internalNodes>
            0 -1 75 -2.6963301934301853e-03</internalNodes>
          <leafValues>
            6.7163449525833130e-01 -1.8406437337398529e-01</leafValues></_>
        <_>
          <internalNodes>
            0 -1 4 -2.8693724423646927e-02</internalNodes>
          <leafValues>
            -7.0113915205001831e-01 1.6399163007736206e-01</leafValues></_>
        <_>
          <internalNodes>
            0 -1 41 -2.5977322366088629e-04</internalNodes>
          <leafValues>
            -8.6377871036529541e-01 1.0596276074647903e-01</leafValues></_></weakClassifiers></_></stages>
  <features>
    <_>
      <rects>
        <_>
          0 0 1 15 -1.</_>
        <_>
          0 5 1 5 2.</_></rects>
      <tilted>0</tilted></_>
    <_>
      <rects>
        <_>
          0 0 8 2 -1.</_>
        <_>
          4 0 4 2 2.</_></rects>
      <tilted>0</tilted></_>
    <_>
      <rects>
        <_>
          0 2 2 12 -1.</_>
        <_>
          1 2 1 12 2.</_></rects>
      <tilted>0</tilted></_>
    <_>
      <rects>
        <_>
          0 8 2 5 -1.</_>
        <_>
          1 8 1 5 2.</_></rects>
      <tilted>0</tilted></_>
    <_>
      <rects>
        <_>
          0 14 22 10 -1.</_>
        <_>
          0 14 11 5 2.</_>
        <_>
          11 19 11 5 2.</_></rects>
      <tilted>0</tilted></_>
    <_>
      <rects>
        <_>
          0 18 12 6 -1.</_>
        <_>
          0 21 12 3 2.</_></rects>
      <tilted>0</tilted></_>
    <_>
      <rects>
        <_>
          1 0 2 24 -1.</_>
        <_>
          1 8 2 8 2.</_></rects>
      <tilted>0</tilted></_>
    <_>
      <rects>
        <_>
          1 5 2 6 -1.</_>
        <_>
          2 5 1 6 2.</_></rects>
      <tilted>0</tilted></_>
    <_>
      <rects>
        <_>
          1 5 22 6 -1.</_>
        <_>
          1 8 22 3 2.</_></rects>
      <tilted>0</tilted></_>
    <_>
      <rects>
        <_>
          1 9 4 4 -1.</_>
        <_>
          1 9 2 2 2.</_>
        <_>
          3 11 2 2 2.</_></rects>
      <tilted>0</tilted></_>
    <_>
      <rects>
        <_>
          1 11 9 2 -1.</_>
        <_>
          4 11 3 2 2.</_></rects>
      <tilted>0</tilted></_>
    <_>
      <rects>
        <_>
          1 14 2 2 -1.</_>
        <_>
          1 14 1 1 2.</_>
        <_>
          2 15 1 1 2.</_></rects>
      <tilted>0</tilted></_>
    <_>
      <rects>
        <_>
          1 21 3 3 -1.</_>
        <_>
          1 22 3 1 2.</_></rects>
      <tilted>0</tilted></_>
    <_>
      <rects>
        <_>
          2 0 10 1 -1.</_>
        <_>
          7 0 5 1 2.</_></rects>
      <tilted>0</tilted></_>
    <_>
      <rects>
        <_>
          2 3 2 7 -1.</_>
        <_>
          3 3 1 7 2.</_></rects>
      <tilted>0</tilted></_>
    <_>
      <rects>
        <_>
          2 3 11 10 -1.</_>
        <_>
          2 8 11 5 2.</_></rects>
      <tilted>0</tilted></_>
    <_>
      <rects>
        <_>
          2 5 2 6 -1.</_>
        <_>
          2 8 2 3 2.</_></rects>
      <tilted>0</tilted></_>
    <_>
      <rects>
        <_>
          2 9 21 14 -1.</_>
        <_>
          2 16 21 7 2.</_></rects>
      <tilted>0</tilted></_>
    <_>
      <rects>
        <_>
          2 16 22 8 -1.</_>
        <_>
          2 16 11 4 2.</_>
        <_>
          13 20 11 4 2.</_></rects>
      <tilted>0</tilted></_>
    <_>
      <rects>
        <_>
          2 19 8 1 -1.</_>
        <_>
          6 19 4 1 2.</_></rects>
      <tilted>0</tilted></_>
    <_>
      <rects>
        <_>
          2 22 3 2 -1.</_>
        <_>
          3 22 1 2 2.</_></rects>
      <tilted>0</tilted></_>
    <_>
      <rects>
        <_>
          3 0 4 2 -1.</_>
        <_>
          5 0 2 2 2.</_></rects>
      <tilted>0</tilted></_>
    <_>
      <rects>
        <_>
          3 5 4 10 -1.</_>
        <_>
          5 5 2 10 2.</_></rects>
      <tilted>0</tilted></_>
    <_>
      <rects>
        <_>
          3 16 18 8 -1.</_>
        <_>
          3 16 9 4 2.</_>
        <_>
          12 20 9 4 2.</_></rects>
      <tilted>0</tilted></_>
    <_>
      <rects>
        <_>
          4 0 16 12 -1.</_>
        <_>
          4 4 16 4 2.</_></rects>
      <tilted>0</tilted></_>
    <_>
      <rects>
        <_>
          4 2 7 4 -1.</_>
        <_>
          4 4 7 2 2.</_></rects>
      <tilted>0</tilted></_>
    <_>
      <rects>
        <_>
          4 8 4 16 -1.</_>
        <_>
          4 8 2 8 2.</_>
        <_>
          6 16 2 8 2.</_></rects>
      <tilted>0</tilted></_>
    <_>
      <rects>
        <_>
          4 9 4 12 -1.</_>
        <_>
          6 9 2 12 2.</_></rects>
      <tilted>0</tilted></_>
    <_>
      <rects>
        <_>
          4 10 6 9 -1.</_>
        <_>
          7 10 3 9 2.</_></rects>
      <tilted>0</tilted></_>
    <_>
      <rects>
        <_>
          4 12 13 12 -1.</_>
        <_>
          4 16 13 4 2.</_></rects>
      <tilted>0</tilted></_>
    <_>
      <rects>
        <_>
          4 14 18 10 -1.</_>
        <_>
          4 14 9 5 2.</_>
        <_>
          13 19 9 5 2.</_></rects>
      <tilted>0</tilted></_>
    <_>
      <rects>
        <_>
          5 0 12 14 -1.</_>
        <_>
          5 0 6 7 2.</_>
        <_>
          11 7 6 7 2.</_></rects>
      <tilted>0</tilted></_>
    <_>
      <rects>
        <_>
          6 0 10 24 -1.</_>
        <_>
          6 0 5 12 2.</_>
        <_>
          11 12 5 12 2.</_></rects>
      <tilted>0</tilted></_>
    <_>
      <rects>
        <_>
          6 1 12 4 -1.</_>
        <_>
          6 1 6 2 2.</_>
        <_>
          12 3 6 2 2.</_></rects>
      <tilted>0</tilted></_>
    <_>
      <rects>
        <_>
          6 4 1 12 -1.</_>
        <_>
          6 8 1 4 2.</_></rects>
      <tilted>0</tilted></_>
    <_>
      <rects>
        <_>
          6 15 15 2 -1.</_>
        <_>
          6 16 15 1 2.</_></rects>
      <tilted>0</tilted></_>
    <_>
      <rects>
        <_>
          6 20 3 2 -1.</_>
        <_>
          7 20 1 2 2.</_></rects>
      <tilted>0</tilted></_>
    <_>
      <rects>
        <_>
          7 0 6 8 -1.</_>
        <_>
          7 4 6 4 2.</_></rects>
      <tilted>0</tilted></_>
    <_>
      <rects>
        <_>
          7 1 4 10 -1.</_>
        <_>
          7 1 2 5 2.</_>
        <_>
          9 6 2 5 2.</_></rects>
      <tilted>0</tilted></_>
    <_>
      <rects>
        <_>
          7 1 4 12 -1.</_>
        <_>
          7 1 2 6 2.</_>
        <_>
          9 7 2 6 2.</_></rects>
      <tilted>0</tilted></_>
    <_>
      <rects>
        <_>
          8 0 6 2 -1.</_>
        <_>
          8 1 6 1 2.</_></rects>
      <tilted>0</tilted></_>
    <_>
      <rects>
        <_>
          8 1 2 1 -1.</_>
        <_>
          9 1 1 1 2.</_></rects>
      <tilted>0</tilted></_>
    <_>
      <rects>
        <_>
          8 2 7 4 -1.</_>
        <_>
          8 4 7 2 2.</_></rects>
      <tilted>0</tilted></_>
    <_>
      <rects>
        <_>
          8 11 10 1 -1.</_>
        <_>
          13 11 5 1 2.</_></rects>
      <tilted>0</tilted></_>
    <_>
      <rects>
        <_>
          8 13 4 11 -1.</_>
        <_>
          10 13 2 11 2.</_></rects>
      <tilted>0</tilted></_>
    <_>
      <rects>
        <_>
          8 21 9 3 -1.</_>
        <_>
          11 21 3 3 2.</_></rects>
      <tilted>0</tilted></_>
    <_>
      <rects>
        <_>
          8 22 11 2 -1.</_>
        <_>
          8 23 11 1 2.</_></rects>
      <tilted>0</tilted></_>
    <_>
      <rects>
        <_>
          9 0 6 12 -1.</_>
        <_>
          9 0 3 6 2.</_>
        <_>
          12 6 3 6 2.</_></rects>
      <tilted>0</tilted></_>
    <_>
      <rects>
        <_>
          9 2 8 9 -1.</_>
        <_>
          9 5 8 3 2.</_></rects>
      <tilted>0</tilted></_>
    <_>
      <rects>
        <_>
          9 9 12 12 -1.</_>
        <_>
          9 15 12 6 2.</_></rects>
      <tilted>0</tilted></_>
    <_>
      <rects>
        <_>
          9 10 2 2 -1.</_>
        <_>
          10 10 1 2 2.</_></rects>
      <tilted>0</tilted></_>
    <_>
      <rects>
        <_>
          9 14 4 8 -1.</_>
        <_>
          11 14 2 8 2.</_></rects>
      <tilted>0</tilted></_>
    <_>
      <rects>
        <_>
          9 22 11 2 -1.</_>
        <_>
          9 23 11 1 2.</_></rects>
      <tilted>0</tilted></_>
    <_>
      <rects>
        <_>
          10 8 4 3 -1.</_>
        <_>
          12 8 2 3 2.</_></rects>
      <tilted>0</tilted></_>
    <_>
      <rects>
        <_>
          10 9 3 13 -1.</_>
        <_>
          11 9 1 13 2.</_></rects>
      <tilted>0</tilted></_>
    <_>
      <rects>
        <_>
          10 10 8 2 -1.</_>
        <_>
          14 10 4 2 2.</_></rects>
      <tilted>0</tilted></_>
    <_>
      <rects>
        <_>
          10 11 4 10 -1.</_>
        <_>
          10 11 2 5 2.</_>
        <_>
          12 16 2 5 2.</_></rects>
      <tilted>0</tilted></_>
    <_>
      <rects>
        <_>
          10 11 8 6 -1.</_>
        <_>
          10 11 4 3 2.</_>
        <_>
          14 14 4 3 2.</_></rects>
      <tilted>0</tilted></_>
    <_>
      <rects>
        <_>
          10 12 6 2 -1.</_>
        <_>
          10 13 6 1 2.</_></rects>
      <tilted>0</tilted></_>
    <_>
      <rects>
        <_>
          10 18 2 6 -1.</_>
        <_>
          10 20 2 2 2.</_></rects>
      <tilted>0</tilted></_>
    <_>
      <rects>
        <_>
          12 1 4 14 -1.</_>
        <_>
          12 1 2 7 2.</_>
        <_>
          14 8 2 7 2.</_></rects>
      <tilted>0</tilted></_>
    <_>
      <rects>
        <_>
          14 0 10 2 -1.</_>
        <_>
          19 0 5 2 2.</_></rects>
      <tilted>0</tilted></_>
    <_>
      <rects>
        <_>
          14 14 5 2 -1.</_>
        <_>
          14 15 5 1 2.</_></rects>
      <tilted>0</tilted></_>
    <_>
      <rects>
        <_>
          15 1 2 16 -1.</_>
        <_>
          15 1 1 8 2.</_>
        <_>
          16 9 1 8 2.</_></rects>
      <tilted>0</tilted></_>
    <_>
      <rects>
        <_>
          15 2 2 8 -1.</_>
        <_>
          15 2 1 4 2.</_>
        <_>
          16 6 1 4 2.</_></rects>
      <tilted>0</tilted></_>
    <_>
      <rects>
        <_>
          15 4 2 14 -1.</_>
        <_>
          15 4 1 7 2.</_>
        <_>
          16 11 1 7 2.</_></rects>
      <tilted>0</tilted></_>
    <_>
      <rects>
        <_>
          15 5 2 18 -1.</_>
        <_>
          15 5 1 9 2.</_>
        <_>
          16 14 1 9 2.</_></rects>
      <tilted>0</tilted></_>
    <_>
      <rects>
        <_>
          15 6 2 18 -1.</_>
        <_>
          15 6 1 9 2.</_>
        <_>
          16 15 1 9 2.</_></rects>
      <tilted>0</tilted></_>
    <_>
      <rects>
        <_>
          15 8 9 14 -1.</_>
        <_>
          15 15 9 7 2.</_></rects>
      <tilted>0</tilted></_>
    <_>
      <rects>
        <_>
          15 9 6 15 -1.</_>
        <_>
          18 9 3 15 2.</_></rects>
      <tilted>0</tilted></_>
    <_>
      <rects>
        <_>
          16 5 6 2 -1.</_>
        <_>
          19 5 3 2 2.</_></rects>
      <tilted>0</tilted></_>
    <_>
      <rects>
        <_>
          16 13 4 9 -1.</_>
        <_>
          18 13 2 9 2.</_></rects>
      <tilted>0</tilted></_>
    <_>
      <rects>
        <_>
          16 15 1 2 -1.</_>
        <_>
          16 16 1 1 2.</_></rects>
      <tilted>0</tilted></_>
    <_>
      <rects>
        <_>
          17 0 6 6 -1.</_>
        <_>
          17 0 3 3 2.</_>
        <_>
          20 3 3 3 2.</_></rects>
      <tilted>0</tilted></_>
    <_>
      <rects>
        <_>
          17 2 6 12 -1.</_>
        <_>
          17 2 3 6 2.</_>
        <_>
          20 8 3 6 2.</_></rects>
      <tilted>0</tilted></_>
    <_>
      <rects>
        <_>
          17 7 4 2 -1.</_>
        <_>
          17 8 4 1 2.</_></rects>
      <tilted>0</tilted></_>
    <_>
      <rects>
        <_>
          18 0 6 6 -1.</_>
        <_>
          21 0 3 6 2.</_></rects>
      <tilted>0</tilted></_>
    <_>
      <rects>
        <_>
          20 2 2 4 -1.</_>
        <_>
          20 2 1 2 2.</_>
        <_>
          21 4 1 2 2.</_></rects>
      <tilted>0</tilted></_>
    <_>
      <rects>
        <_>
          20 8 4 2 -1.</_>
        <_>
          22 8 2 2 2.</_></rects>
      <tilted>0</tilted></_>
    <_>
      <rects>
        <_>
          20 8 4 15 -1.</_>
        <_>
          20 13 4 5 2.</_></rects>
      <tilted>0</tilted></_>
    <_>
      <rects>
        <_>
          21 5 2 4 -1.</_>
        <_>
          21 5 1 2 2.</_>
        <_>
          22 7 1 2 2.</_></rects>
      <tilted>0</tilted></_>
    <_>
      <rects>
        <_>
          21 6 3 8 -1.</_>
        <_>
          21 10 3 4 2.</_></rects>
      <tilted>0</tilted></_>
    <_>
      <rects>
        <_>
          22 4 2 13 -1.</_>
        <_>
          23 4 1 13 2.</_></rects>
      <tilted>0</tilted></_>
    <_>
      <rects>
        <_>
          22 10 2 2 -1.</_>
        <_>
          22 10 1 1 2.</_>
        <_>
          23 11 1 1 2.</_></rects>
      <tilted>0</tilted></_>
    <_>
      <rects>
        <_>
          22 12 2 3 -1.</_>
        <_>
          23 12 1 3 2.</_></rects>
      <tilted>0</tilted></_></features></cascade>
</opencv_storage>
